{"learner":{"attributes":{"scikit_learn":"{\"_estimator_type\": \"classifier\"}"},"feature_names":["Bp","Sg","Al","Su","Rbc","Bu","Sc","Sod","Pot","Hemo","Wbcc","Rbcc","Htn"],"feature_types":["float","float","float","float","float","float","float","float","float","float","float","float","float"],"gradient_booster":{"model":{"gbtree_model_param":{"num_parallel_tree":"1","num_trees":"100"},"iteration_indptr":[0,1,2,3,4,5,6,7,8,9,10,11,12,13,14,15,16,17,18,19,20,21,22,23,24,25,26,27,28,29,30,31,32,33,34,35,36,37,38,39,40,41,42,43,44,45,46,47,48,49,50,51,52,53,54,55,56,57,58,59,60,61,62,63,64,65,66,67,68,69,70,71,72,73,74,75,76,77,78,79,80,81,82,83,84,85,86,87,88,89,90,91,92,93,94,95,96,97,98,99,100],"tree_info":[0,0,0,0,0,0,0,0,0,0,0,0,0,0,0,0,0,0,0,0,0,0,0,0,0,0,0,0,0,0,0,0,0,0,0,0,0,0,0,0,0,0,0,0,0,0,0,0,0,0,0,0,0,0,0,0,0,0,0,0,0,0,0,0,0,0,0,0,0,0,0,0,0,0,0,0,0,0,0,0,0,0,0,0,0,0,0,0,0,0,0,0,0,0,0,0,0,0,0,0],"trees":[{"base_weights":[1.0669222E-2,1.3982396E0,-2.0487072E0,1.5040395E0,-4.2927867E-1,3.6310506E-1,-2.4471643E0,1.574978E-1,4.5710695E-1,-7.650223E-1,-1.5489077E-2],"categories":[],"categories_nodes":[],"categories_segments":[],"categories_sizes":[],"default_left":[0,0,0,0,0,0,0,0,0,0,0],"id":0,"left_children":[1,3,5,7,-1,-1,9,-1,-1,-1,-1],"loss_changes":[2.2061176E2,1.5957298E1,4.332286E1,6.477356E-2,0E0,0E0,6.7772675E0,0E0,0E0,0E0,0E0],"parents":[2147483647,0,0,1,1,2,2,3,3,6,6],"right_children":[2,4,6,8,-1,-1,10,-1,-1,-1,-1],"split_conditions":[1.31E1,5.1E0,1.02E0,1.7E1,-4.2927867E-1,3.6310506E-1,3.7E-1,1.574978E-1,4.5710695E-1,-7.650223E-1,-1.5489077E-2],"split_indices":[9,11,1,5,0,0,12,0,0,0,0],"split_type":[0,0,0,0,0,0,0,0,0,0,0],"sum_hessian":[7.520119E1,4.5120712E1,3.0080475E1,4.3945694E1,1.1750185E0,3.0550482E0,2.7025427E1,1.4100223E0,4.253567E1,2.5850409E1,1.1750185E0],"tree_param":{"num_deleted":"0","num_feature":"13","num_nodes":"11","size_leaf_vector":"1"}},{"base_weights":[3.7966672E-2,1.2293144E0,-1.327761E0,5.1935595E-1,4.0241525E-1,3.3005375E-1,-1.6493942E0,3.3107746E-1,-4.2076346E-1,-5.141212E-1,-1.2947881E-2,2.1480079E-1,-3.691502E-1],"categories":[],"categories_nodes":[],"categories_segments":[],"categories_sizes":[],"default_left":[0,0,0,0,0,0,0,0,0,0,0,0,0],"id":1,"left_children":[1,3,5,7,-1,-1,9,-1,11,-1,-1,-1,-1],"loss_changes":[1.1682474E2,2.3532562E0,2.7948238E1,4.2309856E0,0E0,0E0,3.0214767E0,0E0,3.9668E0,0E0,0E0,0E0,0E0],"parents":[2147483647,0,0,1,1,2,2,3,3,6,6,8,8],"right_children":[2,4,6,8,-1,-1,10,-1,12,-1,-1,-1,-1],"split_conditions":[1.3E1,1.2E0,1.02E0,1.02E0,4.0241525E-1,3.3005375E-1,3.7E-1,3.3107746E-1,1.21E1,-5.141212E-1,-1.2947881E-2,2.1480079E-1,-3.691502E-1],"split_indices":[9,6,1,1,0,0,12,0,9,0,0,0,0],"split_type":[0,0,0,0,0,0,0,0,0,0,0,0,0],"sum_hessian":[6.979809E1,3.7332333E1,3.246575E1,5.8577642E0,3.147457E1,3.5145507E0,2.89512E1,3.505434E0,2.35233E0,2.7771784E1,1.1794178E0,1.0267148E0,1.3256152E0],"tree_param":{"num_deleted":"0","num_feature":"13","num_nodes":"13","size_leaf_vector":"1"}},{"base_weights":[4.8026633E-2,1.0938671E0,-1.0791942E0,4.3861967E-1,3.6282006E-1,2.918316E-1,-1.3470073E0,2.926084E-1,-3.314658E-1,-4.2813087E-1,-4.51743E-2,1.0653758E-1,-2.679251E-1],"categories":[],"categories_nodes":[],"categories_segments":[],"categories_sizes":[],"default_left":[0,0,0,0,0,0,0,0,0,0,0,0,0],"id":2,"left_children":[1,3,5,7,-1,-1,9,-1,11,-1,-1,-1,-1],"loss_changes":[7.248174E1,1.8821678E0,1.7583202E1,2.9463634E0,0E0,0E0,2.3353348E0,0E0,1.6100115E0,0E0,0E0,0E0,0E0],"parents":[2147483647,0,0,1,1,2,2,3,3,6,6,8,8],"right_children":[2,4,6,8,-1,-1,10,-1,12,-1,-1,-1,-1],"split_conditions":[1.3E1,1.2E0,1.02E0,1.02E0,3.6282006E-1,2.918316E-1,1E0,2.926084E-1,2.4E1,-4.2813087E-1,-4.51743E-2,1.0653758E-1,-2.679251E-1],"split_indices":[9,6,1,1,0,0,2,0,5,0,0,0,0],"split_type":[0,0,0,0,0,0,0,0,0,0,0,0,0],"sum_hessian":[5.948152E1,3.086989E1,2.8611631E1,5.346068E0,2.5523823E1,2.9992545E0,2.5612377E1,2.993245E0,2.3528233E0,2.3824615E1,1.7877605E0,1.224058E0,1.1287652E0],"tree_param":{"num_deleted":"0","num_feature":"13","num_nodes":"13","size_leaf_vector":"1"}},{"base_weights":[5.236375E-2,9.967458E-1,-9.320925E-1,3.686835E-1,3.36907E-1,2.6256615E-1,-1.1736896E0,2.7081412E-1,-3.103338E-1,-3.7453026E-1,2.2094382E-2,9.189568E-2,-2.4565347E-1],"categories":[],"categories_nodes":[],"categories_segments":[],"categories_sizes":[],"default_left":[0,0,0,0,0,0,0,0,0,0,0,0,0],"id":3,"left_children":[1,3,5,7,-1,-1,9,-1,11,-1,-1,-1,-1],"loss_changes":[4.747677E1,1.6509552E0,1.1956512E1,2.4004936E0,0E0,0E0,2.1902199E0,0E0,1.2913973E0,0E0,0E0,0E0,0E0],"parents":[2147483647,0,0,1,1,2,2,3,3,6,6,8,8],"right_children":[2,4,6,8,-1,-1,10,-1,12,-1,-1,-1,-1],"split_conditions":[1.3E1,1.2E0,1.02E0,1.25E1,3.36907E-1,2.6256615E-1,3.7E-1,2.7081412E-1,2.4E1,-3.7453026E-1,2.2094382E-2,9.189568E-2,-2.4565347E-1],"split_indices":[9,6,1,9,0,0,12,0,5,0,0,0,0],"split_type":[0,0,0,0,0,0,0,0,0,0,0,0,0],"sum_hessian":[4.90673E1,2.5036997E1,2.4030304E1,4.847378E0,2.0189621E1,2.5242836E0,2.150602E1,2.5289667E0,2.3184109E0,2.0289337E1,1.2166823E0,1.2274922E0,1.0909187E0],"tree_param":{"num_deleted":"0","num_feature":"13","num_nodes":"13","size_leaf_vector":"1"}},{"base_weights":[5.6966875E-2,9.195461E-1,-8.315493E-1,3.1210324E-1,3.1807116E-1,2.384649E-1,-1.0607532E0,2.4677756E-1,-3.0800232E-1,-3.4866053E-1,1.2402128E-3,6.4440876E-2,-2.0177607E-1],"categories":[],"categories_nodes":[],"categories_segments":[],"categories_sizes":[],"default_left":[0,0,0,0,0,0,0,0,0,0,0,0,0],"id":4,"left_children":[1,3,5,7,-1,-1,9,-1,11,-1,-1,-1,-1],"loss_changes":[3.1985273E1,1.476141E0,8.51933E0,1.9607174E0,0E0,0E0,2.000826E0,0E0,7.473382E-1,0E0,0E0,0E0,0E0],"parents":[2147483647,0,0,1,1,2,2,3,3,6,6,8,8],"right_children":[2,4,6,8,-1,-1,10,-1,12,-1,-1,-1,-1],"split_conditions":[1.3E1,1.2E0,1.02E0,1.02E0,3.1807116E-1,2.384649E-1,1E0,2.4677756E-1,2.4E1,-3.4866053E-1,1.2402128E-3,6.4440876E-2,-2.0177607E-1],"split_indices":[9,6,1,1,0,0,2,0,5,0,0,0,0],"split_type":[0,0,0,0,0,0,0,0,0,0,0,0,0],"sum_hessian":[3.973589E1,2.0144505E1,1.9591385E1,4.3935256E0,1.5750979E1,2.1150393E0,1.7476345E1,2.2306528E0,2.1628726E0,1.58728075E1,1.6035384E0,1.0574063E0,1.1054662E0],"tree_param":{"num_deleted":"0","num_feature":"13","num_nodes":"13","size_leaf_vector":"1"}},{"base_weights":[6.096604E-2,8.53414E-1,-7.480383E-1,2.6735368E-1,3.030035E-1,-9.7345686E-1,2.5192174E-1,2.328428E-1,-2.982492E-1,-3.0500996E-1,-8.770237E-2,5.5412732E-2,-1.9186066E-1],"categories":[],"categories_nodes":[],"categories_segments":[],"categories_sizes":[],"default_left":[0,0,0,0,0,0,0,0,0,0,0,0,0],"id":5,"left_children":[1,3,5,7,-1,9,-1,-1,11,-1,-1,-1,-1],"loss_changes":[2.185246E1,1.306984E0,6.8687353E0,1.6655401E0,0E0,1.5248013E-1,0E0,0E0,6.26173E-1,0E0,0E0,0E0,0E0],"parents":[2147483647,0,0,1,1,2,2,3,3,5,5,8,8],"right_children":[2,4,6,8,-1,10,-1,-1,12,-1,-1,-1,-1],"split_conditions":[1.3E1,1.2E0,1E0,1.25E1,3.030035E-1,1E0,2.5192174E-1,2.328428E-1,2.4E1,-3.0500996E-1,-8.770237E-2,5.5412732E-2,-1.9186066E-1],"split_indices":[9,6,12,9,0,2,0,0,5,0,0,0,0],"split_type":[0,0,0,0,0,0,0,0,0,0,0,0,0],"sum_hessian":[3.2090435E1,1.6183367E1,1.5907066E1,3.9832978E0,1.2200069E1,1.4268288E1,1.6387789E0,1.9010056E0,2.082292E0,1.2953212E1,1.3150753E0,1.0521572E0,1.0301349E0],"tree_param":{"num_deleted":"0","num_feature":"13","num_nodes":"13","size_leaf_vector":"1"}},{"base_weights":[6.5288804E-2,-5.6333196E-1,9.212643E-1,2.4719398E-1,-8.952998E-1,2.9497996E-1,4.3070305E-2,-1.0206649E0,-1.0185326E-3,-9.153787E-2,-3.1775066E-1],"categories":[],"categories_nodes":[],"categories_segments":[],"categories_sizes":[],"default_left":[0,0,0,0,0,0,0,0,0,0,0],"id":6,"left_children":[1,3,5,-1,7,-1,-1,9,-1,-1,-1],"loss_changes":[1.5192588E1,8.2646885E0,4.3391228E-1,0E0,1.5247202E0,0E0,0E0,6.87027E-3,0E0,0E0,0E0],"parents":[2147483647,0,0,1,1,2,2,4,4,7,7],"right_children":[2,4,6,-1,8,-1,-1,10,-1,-1,-1],"split_conditions":[1.3E0,1.02E0,1.36E1,2.4719398E-1,1E0,2.9497996E-1,4.3070305E-2,5.4E3,-1.0185326E-3,-9.153787E-2,-3.1775066E-1],"split_indices":[6,1,9,0,2,0,0,10,0,0,0],"split_type":[0,0,0,0,0,0,0,0,0,0,0],"sum_hessian":[2.6270113E1,1.5343711E1,1.0926401E1,2.6764734E0,1.2667237E1,9.874798E0,1.051604E0,1.0979592E1,1.6876447E0,1.0163711E0,9.963222E0],"tree_param":{"num_deleted":"0","num_feature":"13","num_nodes":"11","size_leaf_vector":"1"}},{"base_weights":[6.636361E-2,6.9896936E-1,-6.734575E-1,1.1177175E-1,2.8467533E-1,-2.642533E-1,1.9994153E-1,2.0345585E-1,-1.21520944E-1],"categories":[],"categories_nodes":[],"categories_segments":[],"categories_sizes":[],"default_left":[0,0,0,0,0,0,0,0,0],"id":7,"left_children":[1,3,5,7,-1,-1,-1,-1,-1],"loss_changes":[1.1007228E1,1.7471418E0,3.6122375E0,1.7101903E0,0E0,0E0,0E0,0E0,0E0],"parents":[2147483647,0,0,1,1,2,2,3,3],"right_children":[2,4,6,8,-1,-1,-1,-1,-1],"split_conditions":[1.33E1,1E0,1E0,1.02E0,2.8467533E-1,-2.642533E-1,1.9994153E-1,2.0345585E-1,-1.21520944E-1],"split_indices":[9,2,12,1,0,0,0,0,0],"split_type":[0,0,0,0,0,0,0,0,0],"sum_hessian":[2.1513166E1,1.1626664E1,9.886502E0,3.9034834E0,7.723181E0,8.858112E0,1.0283899E0,1.7134805E0,2.190003E0],"tree_param":{"num_deleted":"0","num_feature":"13","num_nodes":"9","size_leaf_vector":"1"}},{"base_weights":[7.606048E-2,6.224359E-1,-6.4783597E-1,5.5655394E-2,2.7690473E-1,-2.3367454E-1,5.0110605E-2,1.9064136E-1,-3.7650925E-1,-2.7651822E-2,-1.609775E-1],"categories":[],"categories_nodes":[],"categories_segments":[],"categories_sizes":[],"default_left":[0,0,0,0,0,0,0,0,0,0,0],"id":8,"left_children":[1,3,5,7,-1,-1,-1,-1,9,-1,-1],"loss_changes":[7.867847E0,1.8678031E0,1.04952E0,1.4841409E0,0E0,0E0,0E0,0E0,1.08686805E-1,0E0,0E0],"parents":[2147483647,0,0,1,1,2,2,3,3,8,8],"right_children":[2,4,6,8,-1,-1,-1,-1,10,-1,-1],"split_conditions":[4.8E0,1E0,3.7E-1,1.02E0,2.7690473E-1,-2.3367454E-1,5.0110605E-2,1.9064136E-1,1.3E1,-2.7651822E-2,-1.609775E-1],"split_indices":[11,2,12,1,0,0,0,0,9,0,0],"split_type":[0,0,0,0,0,0,0,0,0,0,0],"sum_hessian":[1.787294E1,1.0265219E1,7.6077213E0,3.968077E0,6.2971416E0,6.59154E0,1.0161816E0,1.4936614E0,2.4744155E0,1.458906E0,1.0155094E0],"tree_param":{"num_deleted":"0","num_feature":"13","num_nodes":"11","size_leaf_vector":"1"}},{"base_weights":[7.37473E-2,2.6735443E-1,-3.7913242E-1,-7.359885E-1,2.29234E-1,-1.4790574E-2,-2.777244E-1],"categories":[],"categories_nodes":[],"categories_segments":[],"categories_sizes":[],"default_left":[0,0,0,0,0,0,0],"id":9,"left_children":[1,-1,3,5,-1,-1,-1],"loss_changes":[6.3093896E0,0E0,5.0832973E0,1.1211929E0,0E0,0E0,0E0],"parents":[2147483647,0,0,2,2,3,3],"right_children":[2,-1,4,6,-1,-1,-1],"split_conditions":[1.02E0,2.6735443E-1,1E0,1.3E1,2.29234E-1,-1.4790574E-2,-2.777244E-1],"split_indices":[1,0,12,9,0,0,0],"split_type":[0,0,0,0,0,0,0],"sum_hessian":[1.5130537E1,5.049155E0,1.0081382E1,7.9546294E0,2.1267526E0,1.9950191E0,5.9596105E0],"tree_param":{"num_deleted":"0","num_feature":"13","num_nodes":"7","size_leaf_vector":"1"}},{"base_weights":[7.774619E-2,-3.8507843E-1,2.3299749E-1,1.8770906E-1,-6.601273E-1,-2.3523954E-1,1.2303703E-2],"categories":[],"categories_nodes":[],"categories_segments":[],"categories_sizes":[],"default_left":[0,0,0,0,0,0,0],"id":10,"left_children":[1,3,-1,-1,5,-1,-1],"loss_changes":[4.6406384E0,2.8437462E0,0E0,0E0,6.720288E-1,0E0,0E0],"parents":[2147483647,0,0,1,1,4,4],"right_children":[2,4,-1,-1,6,-1,-1],"split_conditions":[1.3E0,1.02E0,2.3299749E-1,1.8770906E-1,1E0,-2.3523954E-1,1.2303703E-2],"split_indices":[6,1,0,0,2,0,0],"split_type":[0,0,0,0,0,0,0],"sum_hessian":[1.2421691E1,7.743152E0,4.6785393E0,1.3836242E0,6.359528E0,5.3032255E0,1.0563027E0],"tree_param":{"num_deleted":"0","num_feature":"13","num_nodes":"7","size_leaf_vector":"1"}},{"base_weights":[8.170225E-2,2.3974842E-1,-2.9357195E-1,-6.049869E-1,1.992083E-1,7.313368E-3,-2.5340858E-1],"categories":[],"categories_nodes":[],"categories_segments":[],"categories_sizes":[],"default_left":[0,0,0,0,0,0,0],"id":11,"left_children":[1,-1,3,5,-1,-1,-1],"loss_changes":[3.3655016E0,0E0,2.89664E0,1.0519669E0,0E0,0E0,0E0],"parents":[2147483647,0,0,2,2,3,3],"right_children":[2,-1,4,6,-1,-1,-1],"split_conditions":[1.02E0,2.3974842E-1,1E0,1.3E1,1.992083E-1,7.313368E-3,-2.5340858E-1],"split_indices":[1,0,12,9,0,0,0],"split_type":[0,0,0,0,0,0,0],"sum_hessian":[1.0628453E1,3.2621837E0,7.3662696E0,5.8364573E0,1.529812E0,1.8575857E0,3.9788718E0],"tree_param":{"num_deleted":"0","num_feature":"13","num_nodes":"7","size_leaf_vector":"1"}},{"base_weights":[8.6233474E-2,2.2991465E-1,-2.7463406E-1,1.7254964E-1,-5.387475E-1,-7.1967185E-1,4.3604024E-2,-6.291012E-2,-2.4054556E-1],"categories":[],"categories_nodes":[],"categories_segments":[],"categories_sizes":[],"default_left":[0,0,0,0,0,0,0,0,0],"id":12,"left_children":[1,-1,3,-1,5,7,-1,-1,-1],"loss_changes":[2.645795E0,0E0,1.9300833E0,0E0,8.5013187E-1,3.8459778E-2,0E0,0E0,0E0],"parents":[2147483647,0,0,2,2,4,4,5,5],"right_children":[2,-1,4,-1,6,8,-1,-1,-1],"split_conditions":[1.253E1,2.2991465E-1,1.02E0,1.7254964E-1,1E0,6.4E3,4.3604024E-2,-6.291012E-2,-2.4054556E-1],"split_indices":[9,0,1,0,2,10,0,0,0],"split_type":[0,0,0,0,0,0,0,0,0],"sum_hessian":[8.922117E0,2.7033086E0,6.218809E0,1.1952629E0,5.023546E0,3.931709E0,1.0918372E0,1.0383466E0,2.8933623E0],"tree_param":{"num_deleted":"0","num_feature":"13","num_nodes":"9","size_leaf_vector":"1"}},{"base_weights":[8.715066E-2,4.6914503E-1,-4.344705E-1,6.6238746E-2,2.1553102E-1,-1.5297906E-2,-1.9514982E-1,6.304554E-2,-3.5583645E-2],"categories":[],"categories_nodes":[],"categories_segments":[],"categories_sizes":[],"default_left":[0,0,0,0,0,0,0,0,0],"id":13,"left_children":[1,3,5,7,-1,-1,-1,-1,-1],"loss_changes":[1.9437606E0,5.069996E-1,3.1564474E-1,1.10375494E-1,0E0,0E0,0E0,0E0,0E0],"parents":[2147483647,0,0,1,1,2,2,3,3],"right_children":[2,4,6,8,-1,-1,-1,-1,-1],"split_conditions":[4.8E0,1E0,1.4E2,3E1,2.1553102E-1,-1.5297906E-2,-1.9514982E-1,6.304554E-2,-3.5583645E-2],"split_indices":[11,2,7,5,0,0,0,0,0],"split_type":[0,0,0,0,0,0,0,0,0],"sum_hessian":[7.732123E0,4.5215197E0,3.2106035E0,2.2120702E0,2.3094492E0,1.6023268E0,1.6082767E0,1.1668016E0,1.0452687E0],"tree_param":{"num_deleted":"0","num_feature":"13","num_nodes":"9","size_leaf_vector":"1"}},{"base_weights":[7.322864E-2,-2.7061185E-1,1.8278761E-1,3.9808024E-2,-5.105347E-1,-2.3118773E-2,-1.9463113E-1],"categories":[],"categories_nodes":[],"categories_segments":[],"categories_sizes":[],"default_left":[0,0,0,0,0,0,0],"id":14,"left_children":[1,3,-1,-1,5,-1,-1],"loss_changes":[1.6430744E0,6.0751176E-1,0E0,0E0,1.7194617E-1,0E0,0E0],"parents":[2147483647,0,0,1,1,4,4],"right_children":[2,4,-1,-1,6,-1,-1],"split_conditions":[1.3E0,1.3E1,1.8278761E-1,3.9808024E-2,1.38E2,-2.3118773E-2,-1.9463113E-1],"split_indices":[6,9,0,0,7,0,0],"split_type":[0,0,0,0,0,0,0],"sum_hessian":[7.0196958E0,4.578288E0,2.4414077E0,1.8743979E0,2.7038903E0,1.0303735E0,1.673517E0],"tree_param":{"num_deleted":"0","num_feature":"13","num_nodes":"7","size_leaf_vector":"1"}},{"base_weights":[5.6566324E-2,1.953659E-1,-2.388912E-1,-5.027747E-1,1.0226214E-1,-2.322045E-2,-2.029834E-1],"categories":[],"categories_nodes":[],"categories_segments":[],"categories_sizes":[],"default_left":[0,0,0,0,0,0,0],"id":15,"left_children":[1,-1,3,5,-1,-1,-1],"loss_changes":[1.4551238E0,0E0,1.0393083E0,2.6579022E-1,0E0,0E0,0E0],"parents":[2147483647,0,0,2,2,3,3],"right_children":[2,-1,4,6,-1,-1,-1],"split_conditions":[1.02E0,1.953659E-1,1E0,1.3E1,1.0226214E-1,-2.322045E-2,-2.029834E-1],"split_indices":[1,0,2,9,0,0,0],"split_type":[0,0,0,0,0,0,0],"sum_hessian":[6.3966503E0,1.723579E0,4.6730714E0,3.3026474E0,1.3704242E0,1.3774123E0,1.925235E0],"tree_param":{"num_deleted":"0","num_feature":"13","num_nodes":"7","size_leaf_vector":"1"}},{"base_weights":[5.3934474E-2,1.8679278E-1,-2.2745644E-1,-4.1045377E-1,6.893932E-2,-1.7982692E-1,-1.8224625E-2],"categories":[],"categories_nodes":[],"categories_segments":[],"categories_sizes":[],"default_left":[0,0,0,0,0,0,0],"id":16,"left_children":[1,-1,3,5,-1,-1,-1],"loss_changes":[1.2145755E0,0E0,5.3092986E-1,2.3356223E-1,0E0,0E0,0E0],"parents":[2147483647,0,0,2,2,3,3],"right_children":[2,-1,4,6,-1,-1,-1],"split_conditions":[1.253E1,1.8679278E-1,1E0,4.63E0,6.893932E-2,-1.7982692E-1,-1.8224625E-2],"split_indices":[9,0,2,8,0,0,0],"split_type":[0,0,0,0,0,0,0],"sum_hessian":[5.7047195E0,1.4868909E0,4.2178283E0,3.0853815E0,1.1324469E0,1.5394373E0,1.5459443E0],"tree_param":{"num_deleted":"0","num_feature":"13","num_nodes":"7","size_leaf_vector":"1"}},{"base_weights":[5.109301E-2,1.7518999E-1,-2.078508E-1,5.2497797E-2,-1.4801227E-1],"categories":[],"categories_nodes":[],"categories_segments":[],"categories_sizes":[],"default_left":[0,0,0,0,0],"id":17,"left_children":[1,-1,3,-1,-1],"loss_changes":[9.893856E-1,0E0,6.297138E-1,0E0,0E0],"parents":[2147483647,0,0,2,2],"right_children":[2,-1,4,-1,-1],"split_conditions":[1.02E0,1.7518999E-1,1.3E1,5.2497797E-2,-1.4801227E-1],"split_indices":[1,0,9,0,0],"split_type":[0,0,0,0,0],"sum_hessian":[5.290625E0,1.3196878E0,3.9709375E0,1.8617415E0,2.109196E0],"tree_param":{"num_deleted":"0","num_feature":"13","num_nodes":"5","size_leaf_vector":"1"}},{"base_weights":[5.265122E-2,-2.0095682E-1,1.7184016E-1,4.0094204E-2,-1.3755652E-1],"categories":[],"categories_nodes":[],"categories_segments":[],"categories_sizes":[],"default_left":[0,0,0,0,0],"id":18,"left_children":[1,3,-1,-1,-1],"loss_changes":[8.877277E-1,4.6440464E-1,0E0,0E0,0E0],"parents":[2147483647,0,0,1,1],"right_children":[2,4,-1,-1,-1],"split_conditions":[1E0,1.3E1,1.7184016E-1,4.0094204E-2,-1.3755652E-1],"split_indices":[12,9,0,0,0],"split_type":[0,0,0,0,0],"sum_hessian":[4.8569927E0,3.6775792E0,1.1794137E0,1.8088295E0,1.8687496E0],"tree_param":{"num_deleted":"0","num_feature":"13","num_nodes":"5","size_leaf_vector":"1"}},{"base_weights":[5.345468E-2,1.5952648E-1,-1.8217821E-1,-3.9352793E-1,7.674696E-2,-2.746424E-2,-1.6014957E-1],"categories":[],"categories_nodes":[],"categories_segments":[],"categories_sizes":[],"default_left":[0,0,0,0,0,0,0],"id":19,"left_children":[1,-1,3,5,-1,-1,-1],"loss_changes":[7.1804965E-1,0E0,5.114436E-1,9.463471E-2,0E0,0E0,0E0],"parents":[2147483647,0,0,2,2,3,3],"right_children":[2,-1,4,6,-1,-1,-1],"split_conditions":[1.02E0,1.5952648E-1,1E0,1.3E1,7.674696E-2,-2.746424E-2,-1.6014957E-1],"split_indices":[1,0,2,9,0,0,0],"split_type":[0,0,0,0,0,0,0],"sum_hessian":[4.511602E0,1.074274E0,3.4373279E0,2.387041E0,1.0502868E0,1.281444E0,1.1055973E0],"tree_param":{"num_deleted":"0","num_feature":"13","num_nodes":"7","size_leaf_vector":"1"}},{"base_weights":[4.941426E-2,-2.0066664E-1,1.3821356E-1,-1.2989838E-1,4.056246E-2],"categories":[],"categories_nodes":[],"categories_segments":[],"categories_sizes":[],"default_left":[0,0,0,0,0],"id":20,"left_children":[1,3,-1,-1,-1],"loss_changes":[6.241825E-1,3.6376774E-1,0E0,0E0,0E0],"parents":[2147483647,0,0,1,1],"right_children":[2,4,-1,-1,-1],"split_conditions":[1.3E0,4.63E0,1.3821356E-1,-1.2989838E-1,4.056246E-2],"split_indices":[6,8,0,0,0],"split_type":[0,0,0,0,0],"sum_hessian":[4.1695995E0,2.9114604E0,1.2581391E0,1.550092E0,1.3613685E0],"tree_param":{"num_deleted":"0","num_feature":"13","num_nodes":"5","size_leaf_vector":"1"}},{"base_weights":[4.655157E-2,-1.6714962E-1,1.2299821E-1,4.7615293E-2,-1.1366419E-1],"categories":[],"categories_nodes":[],"categories_segments":[],"categories_sizes":[],"default_left":[0,0,0,0,0],"id":21,"left_children":[1,3,-1,-1,-1],"loss_changes":[4.555552E-1,3.2565647E-1,0E0,0E0,0E0],"parents":[2147483647,0,0,1,1],"right_children":[2,4,-1,-1,-1],"split_conditions":[1.3E0,2.5E1,1.2299821E-1,4.7615293E-2,-1.1366419E-1],"split_indices":[6,5,0,0,0],"split_type":[0,0,0,0,0],"sum_hessian":[3.9830613E0,2.8483489E0,1.1347126E0,1.2204227E0,1.6279261E0],"tree_param":{"num_deleted":"0","num_feature":"13","num_nodes":"5","size_leaf_vector":"1"}},{"base_weights":[4.601932E-2,-1.7250384E-1,1.0804988E-1,1.987189E-2,-9.073164E-2],"categories":[],"categories_nodes":[],"categories_segments":[],"categories_sizes":[],"default_left":[0,0,0,0,0],"id":22,"left_children":[1,3,-1,-1,-1],"loss_changes":[3.9111638E-1,1.2868422E-1,0E0,0E0,0E0],"parents":[2147483647,0,0,1,1],"right_children":[2,4,-1,-1,-1],"split_conditions":[1E0,2.5E1,1.0804988E-1,1.987189E-2,-9.073164E-2],"split_indices":[2,5,0,0,0],"split_type":[0,0,0,0,0],"sum_hessian":[3.7923396E0,2.5024774E0,1.289862E0,1.0547258E0,1.4477518E0],"tree_param":{"num_deleted":"0","num_feature":"13","num_nodes":"5","size_leaf_vector":"1"}},{"base_weights":[4.1434973E-2,7.699424E-2,-7.419515E-2],"categories":[],"categories_nodes":[],"categories_segments":[],"categories_sizes":[],"default_left":[0,0,0],"id":23,"left_children":[1,-1,-1],"loss_changes":[3.5356042E-1,0E0,0E0],"parents":[2147483647,0,0],"right_children":[2,-1,-1],"split_conditions":[4.8E0,7.699424E-2,-7.419515E-2],"split_indices":[11,0,0],"split_type":[0,0,0],"sum_hessian":[3.6680524E0,2.1653554E0,1.5026969E0],"tree_param":{"num_deleted":"0","num_feature":"13","num_nodes":"3","size_leaf_vector":"1"}},{"base_weights":[3.0477362E-2,-1.8909167E-1,9.215629E-2,-1.1419807E-1,3.350945E-2],"categories":[],"categories_nodes":[],"categories_segments":[],"categories_sizes":[],"default_left":[0,0,0,0,0],"id":24,"left_children":[1,3,-1,-1,-1],"loss_changes":[3.3516294E-1,2.2470342E-1,0E0,0E0,0E0],"parents":[2147483647,0,0,1,1],"right_children":[2,4,-1,-1,-1],"split_conditions":[1.2E0,4.6E0,9.215629E-2,-1.1419807E-1,3.350945E-2],"split_indices":[6,8,0,0,0],"split_type":[0,0,0,0,0],"sum_hessian":[3.5604014E0,2.161723E0,1.3986787E0,1.158412E0,1.0033108E0],"tree_param":{"num_deleted":"0","num_feature":"13","num_nodes":"5","size_leaf_vector":"1"}},{"base_weights":[2.4389537E-2,6.584087E-2,-7.692211E-2],"categories":[],"categories_nodes":[],"categories_segments":[],"categories_sizes":[],"default_left":[0,0,0],"id":25,"left_children":[1,-1,-1],"loss_changes":[3.0118996E-1,0E0,0E0],"parents":[2147483647,0,0],"right_children":[2,-1,-1],"split_conditions":[1.38E1,6.584087E-2,-7.692211E-2],"split_indices":[9,0,0],"split_type":[0,0,0],"sum_hessian":[3.4710896E0,2.177029E0,1.2940608E0],"tree_param":{"num_deleted":"0","num_feature":"13","num_nodes":"3","size_leaf_vector":"1"}},{"base_weights":[1.4871306E-2,-1.6913502E-1,9.068005E-2,-8.933796E-2,1.3439044E-2],"categories":[],"categories_nodes":[],"categories_segments":[],"categories_sizes":[],"default_left":[0,0,0,0,0],"id":26,"left_children":[1,3,-1,-1,-1],"loss_changes":[2.826892E-1,1.04467675E-1,0E0,0E0,0E0],"parents":[2147483647,0,0,1,1],"right_children":[2,4,-1,-1,-1],"split_conditions":[1E0,4.63E0,9.068005E-2,-8.933796E-2,1.3439044E-2],"split_indices":[2,8,0,0,0],"split_type":[0,0,0,0,0],"sum_hessian":[3.378857E0,2.3108284E0,1.0680283E0,1.1982206E0,1.1126078E0],"tree_param":{"num_deleted":"0","num_feature":"13","num_nodes":"5","size_leaf_vector":"1"}},{"base_weights":[1.4279979E-2,1.9173189E-1,-8.136657E-2,-2.8749406E-2,1.0933416E-1],"categories":[],"categories_nodes":[],"categories_segments":[],"categories_sizes":[],"default_left":[0,0,0,0,0],"id":27,"left_children":[1,3,-1,-1,-1],"loss_changes":[2.705098E-1,1.9612584E-1,0E0,0E0,0E0],"parents":[2147483647,0,0,1,1],"right_children":[2,4,-1,-1,-1],"split_conditions":[1.4E2,4.63E0,-8.136657E-2,-2.8749406E-2,1.0933416E-1],"split_indices":[7,8,0,0,0],"split_type":[0,0,0,0,0],"sum_hessian":[3.312982E0,2.2456508E0,1.0673312E0,1.0096978E0,1.235953E0],"tree_param":{"num_deleted":"0","num_feature":"13","num_nodes":"5","size_leaf_vector":"1"}},{"base_weights":[1.029248E-2,1.7648622E-1,-7.739458E-2,1.4984311E-2,6.380649E-2],"categories":[],"categories_nodes":[],"categories_segments":[],"categories_sizes":[],"default_left":[0,0,0,0,0],"id":28,"left_children":[1,3,-1,-1,-1],"loss_changes":[2.3404302E-1,4.0566325E-3,0E0,0E0,0E0],"parents":[2147483647,0,0,1,1],"right_children":[2,4,-1,-1,-1],"split_conditions":[1.42E1,7.6E1,-7.739458E-2,1.4984311E-2,6.380649E-2],"split_indices":[9,0,0,0,0],"split_type":[0,0,0,0,0],"sum_hessian":[3.2281153E0,2.2045548E0,1.0235604E0,1.0197775E0,1.1847774E0],"tree_param":{"num_deleted":"0","num_feature":"13","num_nodes":"5","size_leaf_vector":"1"}},{"base_weights":[7.4969693E-3,-5.1368576E-2,7.286443E-2],"categories":[],"categories_nodes":[],"categories_segments":[],"categories_sizes":[],"default_left":[0,0,0],"id":29,"left_children":[1,-1,-1],"loss_changes":[2.1658853E-1,0E0,0E0],"parents":[2147483647,0,0],"right_children":[2,-1,-1],"split_conditions":[1.2E0,-5.1368576E-2,7.286443E-2],"split_indices":[6,0,0],"split_type":[0,0,0],"sum_hessian":[3.1598182E0,1.9509983E0,1.2088197E0],"tree_param":{"num_deleted":"0","num_feature":"13","num_nodes":"3","size_leaf_vector":"1"}},{"base_weights":[1.0710819E-2,5.5769444E-2,-6.292011E-2],"categories":[],"categories_nodes":[],"categories_segments":[],"categories_sizes":[],"default_left":[0,0,0],"id":30,"left_children":[1,-1,-1],"loss_changes":[1.9782089E-1,0E0,0E0],"parents":[2147483647,0,0],"right_children":[2,-1,-1],"split_conditions":[4.8E0,5.5769444E-2,-6.292011E-2],"split_indices":[11,0,0],"split_type":[0,0,0],"sum_hessian":[3.1127799E0,1.8217481E0,1.2910317E0],"tree_param":{"num_deleted":"0","num_feature":"13","num_nodes":"3","size_leaf_vector":"1"}},{"base_weights":[5.833847E-3,-4.3964837E-2,6.259428E-2],"categories":[],"categories_nodes":[],"categories_segments":[],"categories_sizes":[],"default_left":[0,0,0],"id":31,"left_children":[1,-1,-1],"loss_changes":[1.5576512E-1,0E0,0E0],"parents":[2147483647,0,0],"right_children":[2,-1,-1],"split_conditions":[1.2E0,-4.3964837E-2,6.259428E-2],"split_indices":[6,0,0],"split_type":[0,0,0],"sum_hessian":[3.0506785E0,1.9003081E0,1.1503705E0],"tree_param":{"num_deleted":"0","num_feature":"13","num_nodes":"3","size_leaf_vector":"1"}},{"base_weights":[8.86652E-3,4.8418894E-2,-6.0668755E-2],"categories":[],"categories_nodes":[],"categories_segments":[],"categories_sizes":[],"default_left":[0,0,0],"id":32,"left_children":[1,-1,-1],"loss_changes":[1.6200149E-1,0E0,0E0],"parents":[2147483647,0,0],"right_children":[2,-1,-1],"split_conditions":[1.38E1,4.8418894E-2,-6.0668755E-2],"split_indices":[9,0,0],"split_type":[0,0,0],"sum_hessian":[3.017669E0,1.8885262E0,1.1291426E0],"tree_param":{"num_deleted":"0","num_feature":"13","num_nodes":"3","size_leaf_vector":"1"}},{"base_weights":[3.1498207E-3,-4.7333065E-2,5.137443E-2],"categories":[],"categories_nodes":[],"categories_segments":[],"categories_sizes":[],"default_left":[0,0,0],"id":33,"left_children":[1,-1,-1],"loss_changes":[1.3428871E-1,0E0,0E0],"parents":[2147483647,0,0],"right_children":[2,-1,-1],"split_conditions":[4.63E0,-4.7333065E-2,5.137443E-2],"split_indices":[8,0,0],"split_type":[0,0,0],"sum_hessian":[2.965389E0,1.5463816E0,1.4190074E0],"tree_param":{"num_deleted":"0","num_feature":"13","num_nodes":"3","size_leaf_vector":"1"}},{"base_weights":[3.2645667E-3,4.3711513E-2,-5.180489E-2],"categories":[],"categories_nodes":[],"categories_segments":[],"categories_sizes":[],"default_left":[0,0,0],"id":34,"left_children":[1,-1,-1],"loss_changes":[1.24323055E-1,0E0,0E0],"parents":[2147483647,0,0],"right_children":[2,-1,-1],"split_conditions":[4.8E0,4.3711513E-2,-5.180489E-2],"split_indices":[11,0,0],"split_type":[0,0,0],"sum_hessian":[2.9566708E0,1.728901E0,1.2277696E0],"tree_param":{"num_deleted":"0","num_feature":"13","num_nodes":"3","size_leaf_vector":"1"}},{"base_weights":[2.2367682E-4,-4.0470436E-2,5.4877855E-2],"categories":[],"categories_nodes":[],"categories_segments":[],"categories_sizes":[],"default_left":[0,0,0],"id":35,"left_children":[1,-1,-1],"loss_changes":[1.2130326E-1,0E0,0E0],"parents":[2147483647,0,0],"right_children":[2,-1,-1],"split_conditions":[1.2E0,-4.0470436E-2,5.4877855E-2],"split_indices":[6,0,0],"split_type":[0,0,0],"sum_hessian":[2.913943E0,1.825473E0,1.0884702E0],"tree_param":{"num_deleted":"0","num_feature":"13","num_nodes":"3","size_leaf_vector":"1"}},{"base_weights":[3.9349906E-3,4.0106095E-2,-5.160163E-2],"categories":[],"categories_nodes":[],"categories_segments":[],"categories_sizes":[],"default_left":[0,0,0],"id":36,"left_children":[1,-1,-1],"loss_changes":[1.1179903E-1,0E0,0E0],"parents":[2147483647,0,0],"right_children":[2,-1,-1],"split_conditions":[1.38E1,4.0106095E-2,-5.160163E-2],"split_indices":[9,0,0],"split_type":[0,0,0],"sum_hessian":[2.8900359E0,1.8015742E0,1.0884616E0],"tree_param":{"num_deleted":"0","num_feature":"13","num_nodes":"3","size_leaf_vector":"1"}},{"base_weights":[-2.3920031E-4,-4.3990888E-2,4.6298303E-2],"categories":[],"categories_nodes":[],"categories_segments":[],"categories_sizes":[],"default_left":[0,0,0],"id":37,"left_children":[1,-1,-1],"loss_changes":[1.09775364E-1,0E0,0E0],"parents":[2147483647,0,0],"right_children":[2,-1,-1],"split_conditions":[4.63E0,-4.3990888E-2,4.6298303E-2],"split_indices":[8,0,0],"split_type":[0,0,0],"sum_hessian":[2.8511925E0,1.4906452E0,1.3605473E0],"tree_param":{"num_deleted":"0","num_feature":"13","num_nodes":"3","size_leaf_vector":"1"}},{"base_weights":[4.593451E-4,-3.5085782E-2,4.772929E-2],"categories":[],"categories_nodes":[],"categories_segments":[],"categories_sizes":[],"default_left":[0,0,0],"id":38,"left_children":[1,-1,-1],"loss_changes":[9.023341E-2,0E0,0E0],"parents":[2147483647,0,0],"right_children":[2,-1,-1],"split_conditions":[1.2E0,-3.5085782E-2,4.772929E-2],"split_indices":[6,0,0],"split_type":[0,0,0],"sum_hessian":[2.8455071E0,1.7862402E0,1.0592668E0],"tree_param":{"num_deleted":"0","num_feature":"13","num_nodes":"3","size_leaf_vector":"1"}},{"base_weights":[3.6733807E-3,3.773433E-2,-4.819944E-2],"categories":[],"categories_nodes":[],"categories_segments":[],"categories_sizes":[],"default_left":[0,0,0],"id":39,"left_children":[1,-1,-1],"loss_changes":[9.7023495E-2,0E0,0E0],"parents":[2147483647,0,0],"right_children":[2,-1,-1],"split_conditions":[1.38E1,3.773433E-2,-4.819944E-2],"split_indices":[9,0,0],"split_type":[0,0,0],"sum_hessian":[2.8279293E0,1.7570294E0,1.0708998E0],"tree_param":{"num_deleted":"0","num_feature":"13","num_nodes":"3","size_leaf_vector":"1"}},{"base_weights":[-1.9289063E-4,-3.81214E-2,4.0124025E-2],"categories":[],"categories_nodes":[],"categories_segments":[],"categories_sizes":[],"default_left":[0,0,0],"id":40,"left_children":[1,-1,-1],"loss_changes":[8.1470616E-2,0E0,0E0],"parents":[2147483647,0,0],"right_children":[2,-1,-1],"split_conditions":[4.63E0,-3.81214E-2,4.0124025E-2],"split_indices":[8,0,0],"split_type":[0,0,0],"sum_hessian":[2.7939894E0,1.4611496E0,1.3328397E0],"tree_param":{"num_deleted":"0","num_feature":"13","num_nodes":"3","size_leaf_vector":"1"}},{"base_weights":[4.1022664E-4,3.4913704E-2,-4.2164832E-2],"categories":[],"categories_nodes":[],"categories_segments":[],"categories_sizes":[],"default_left":[0,0,0],"id":41,"left_children":[1,-1,-1],"loss_changes":[7.8329E-2,0E0,0E0],"parents":[2147483647,0,0],"right_children":[2,-1,-1],"split_conditions":[4.8E0,3.4913704E-2,-4.2164832E-2],"split_indices":[11,0,0],"split_type":[0,0,0],"sum_hessian":[2.7910504E0,1.6269362E0,1.1641141E0],"tree_param":{"num_deleted":"0","num_feature":"13","num_nodes":"3","size_leaf_vector":"1"}},{"base_weights":[-1.6513581E-3,-3.2461766E-2,4.296062E-2],"categories":[],"categories_nodes":[],"categories_segments":[],"categories_sizes":[],"default_left":[0,0,0],"id":42,"left_children":[1,-1,-1],"loss_changes":[7.355974E-2,0E0,0E0],"parents":[2147483647,0,0],"right_children":[2,-1,-1],"split_conditions":[1.2E0,-3.2461766E-2,4.296062E-2],"split_indices":[6,0,0],"split_type":[0,0,0],"sum_hessian":[2.7619193E0,1.7371011E0,1.0248183E0],"tree_param":{"num_deleted":"0","num_feature":"13","num_nodes":"3","size_leaf_vector":"1"}},{"base_weights":[1.6763174E-3,3.206571E-2,-4.1368928E-2],"categories":[],"categories_nodes":[],"categories_segments":[],"categories_sizes":[],"default_left":[0,0,0],"id":43,"left_children":[1,-1,-1],"loss_changes":[6.978608E-2,0E0,0E0],"parents":[2147483647,0,0],"right_children":[2,-1,-1],"split_conditions":[1.38E1,3.206571E-2,-4.1368928E-2],"split_indices":[9,0,0],"split_type":[0,0,0],"sum_hessian":[2.7486773E0,1.7008084E0,1.0478688E0],"tree_param":{"num_deleted":"0","num_feature":"13","num_nodes":"3","size_leaf_vector":"1"}},{"base_weights":[-1.3376004E-3,4.276972E-2,-3.476677E-2],"categories":[],"categories_nodes":[],"categories_segments":[],"categories_sizes":[],"default_left":[0,0,0],"id":44,"left_children":[1,-1,-1],"loss_changes":[7.788292E-2,0E0,0E0],"parents":[2147483647,0,0],"right_children":[2,-1,-1],"split_conditions":[7.9E3,4.276972E-2,-3.476677E-2],"split_indices":[10,0,0],"split_type":[0,0,0],"sum_hessian":[2.722382E0,1.0982153E0,1.6241666E0],"tree_param":{"num_deleted":"0","num_feature":"13","num_nodes":"3","size_leaf_vector":"1"}},{"base_weights":[1.2323248E-3,-3.2310363E-2,3.4881E-2],"categories":[],"categories_nodes":[],"categories_segments":[],"categories_sizes":[],"default_left":[0,0,0],"id":45,"left_children":[1,-1,-1],"loss_changes":[5.9162218E-2,0E0,0E0],"parents":[2147483647,0,0],"right_children":[2,-1,-1],"split_conditions":[4.63E0,-3.2310363E-2,3.4881E-2],"split_indices":[8,0,0],"split_type":[0,0,0],"sum_hessian":[2.7218168E0,1.4307549E0,1.2910618E0],"tree_param":{"num_deleted":"0","num_feature":"13","num_nodes":"3","size_leaf_vector":"1"}},{"base_weights":[1.5675185E-3,3.0845061E-2,-3.9680988E-2],"categories":[],"categories_nodes":[],"categories_segments":[],"categories_sizes":[],"default_left":[0,0,0],"id":46,"left_children":[1,-1,-1],"loss_changes":[6.401496E-2,0E0,0E0],"parents":[2147483647,0,0],"right_children":[2,-1,-1],"split_conditions":[1.38E1,3.0845061E-2,-3.9680988E-2],"split_indices":[9,0,0],"split_type":[0,0,0],"sum_hessian":[2.7204297E0,1.6807238E0,1.0397059E0],"tree_param":{"num_deleted":"0","num_feature":"13","num_nodes":"3","size_leaf_vector":"1"}},{"base_weights":[-1.3020409E-3,-2.9499887E-2,3.8917974E-2],"categories":[],"categories_nodes":[],"categories_segments":[],"categories_sizes":[],"default_left":[0,0,0],"id":47,"left_children":[1,-1,-1],"loss_changes":[5.9746526E-2,0E0,0E0],"parents":[2147483647,0,0],"right_children":[2,-1,-1],"split_conditions":[1.2E0,-2.9499887E-2,3.8917974E-2],"split_indices":[6,0,0],"split_type":[0,0,0],"sum_hessian":[2.6959867E0,1.6923085E0,1.0036781E0],"tree_param":{"num_deleted":"0","num_feature":"13","num_nodes":"3","size_leaf_vector":"1"}},{"base_weights":[1.6678808E-3,3.3447705E-2,-3.5647497E-2],"categories":[],"categories_nodes":[],"categories_segments":[],"categories_sizes":[],"default_left":[0,0,0],"id":48,"left_children":[1,-1,-1],"loss_changes":[6.202158E-2,0E0,0E0],"parents":[2147483647,0,0],"right_children":[2,-1,-1],"split_conditions":[3.1E1,3.3447705E-2,-3.5647497E-2],"split_indices":[5,0,0],"split_type":[0,0,0],"sum_hessian":[2.6857297E0,1.4441458E0,1.241584E0],"tree_param":{"num_deleted":"0","num_feature":"13","num_nodes":"3","size_leaf_vector":"1"}},{"base_weights":[5.8170315E-4,-3.500907E-2,3.407846E-2],"categories":[],"categories_nodes":[],"categories_segments":[],"categories_sizes":[],"default_left":[0,0,0],"id":49,"left_children":[1,-1,-1],"loss_changes":[6.189434E-2,0E0,0E0],"parents":[2147483647,0,0],"right_children":[2,-1,-1],"split_conditions":[7.6E1,-3.500907E-2,3.407846E-2],"split_indices":[0,0,0],"split_type":[0,0,0],"sum_hessian":[2.669691E0,1.2941257E0,1.3755653E0],"tree_param":{"num_deleted":"0","num_feature":"13","num_nodes":"3","size_leaf_vector":"1"}},{"base_weights":[1.671258E-4,3.60992E-2,-2.889326E-2],"categories":[],"categories_nodes":[],"categories_segments":[],"categories_sizes":[],"default_left":[0,0,0],"id":50,"left_children":[1,-1,-1],"loss_changes":[5.4029454E-2,0E0,0E0],"parents":[2147483647,0,0],"right_children":[2,-1,-1],"split_conditions":[7.9E3,3.60992E-2,-2.889326E-2],"split_indices":[10,0,0],"split_type":[0,0,0],"sum_hessian":[2.6608136E0,1.0748506E0,1.5859629E0],"tree_param":{"num_deleted":"0","num_feature":"13","num_nodes":"3","size_leaf_vector":"1"}},{"base_weights":[2.095867E-3,3.0491002E-2,-3.738157E-2],"categories":[],"categories_nodes":[],"categories_segments":[],"categories_sizes":[],"default_left":[0,0,0],"id":51,"left_children":[1,-1,-1],"loss_changes":[5.8844015E-2,0E0,0E0],"parents":[2147483647,0,0],"right_children":[2,-1,-1],"split_conditions":[4.9E0,3.0491002E-2,-3.738157E-2],"split_indices":[11,0,0],"split_type":[0,0,0],"sum_hessian":[2.6615775E0,1.6013355E0,1.0602418E0],"tree_param":{"num_deleted":"0","num_feature":"13","num_nodes":"3","size_leaf_vector":"1"}},{"base_weights":[-4.2592356E-4,-2.9311793E-2,3.0976266E-2],"categories":[],"categories_nodes":[],"categories_segments":[],"categories_sizes":[],"default_left":[0,0,0],"id":52,"left_children":[1,-1,-1],"loss_changes":[4.678772E-2,0E0,0E0],"parents":[2147483647,0,0],"right_children":[2,-1,-1],"split_conditions":[4.63E0,-2.9311793E-2,3.0976266E-2],"split_indices":[8,0,0],"split_type":[0,0,0],"sum_hessian":[2.6386213E0,1.3910555E0,1.2475657E0],"tree_param":{"num_deleted":"0","num_feature":"13","num_nodes":"3","size_leaf_vector":"1"}},{"base_weights":[1.7019226E-4,2.7089309E-2,-3.5261422E-2],"categories":[],"categories_nodes":[],"categories_segments":[],"categories_sizes":[],"default_left":[0,0,0],"id":53,"left_children":[1,-1,-1],"loss_changes":[4.9209937E-2,0E0,0E0],"parents":[2147483647,0,0],"right_children":[2,-1,-1],"split_conditions":[1.38E1,2.7089309E-2,-3.5261422E-2],"split_indices":[9,0,0],"split_type":[0,0,0],"sum_hessian":[2.6381776E0,1.6260237E0,1.012154E0],"tree_param":{"num_deleted":"0","num_feature":"13","num_nodes":"3","size_leaf_vector":"1"}},{"base_weights":[-2.1502199E-3,-3.182587E-2,2.9501228E-2],"categories":[],"categories_nodes":[],"categories_segments":[],"categories_sizes":[],"default_left":[0,0,0],"id":54,"left_children":[1,-1,-1],"loss_changes":[4.8221696E-2,0E0,0E0],"parents":[2147483647,0,0],"right_children":[2,-1,-1],"split_conditions":[7.6E1,-3.182587E-2,2.9501228E-2],"split_indices":[0,0,0],"split_type":[0,0,0],"sum_hessian":[2.6181943E0,1.2596271E0,1.3585672E0],"tree_param":{"num_deleted":"0","num_feature":"13","num_nodes":"3","size_leaf_vector":"1"}},{"base_weights":[-2.1422333E-3,3.294507E-2,-2.739858E-2],"categories":[],"categories_nodes":[],"categories_segments":[],"categories_sizes":[],"default_left":[0,0,0],"id":55,"left_children":[1,-1,-1],"loss_changes":[4.6094425E-2,0E0,0E0],"parents":[2147483647,0,0],"right_children":[2,-1,-1],"split_conditions":[7.9E3,3.294507E-2,-2.739858E-2],"split_indices":[10,0,0],"split_type":[0,0,0],"sum_hessian":[2.6118357E0,1.0555027E0,1.5563331E0],"tree_param":{"num_deleted":"0","num_feature":"13","num_nodes":"3","size_leaf_vector":"1"}},{"base_weights":[4.6217276E-5,2.622947E-2,-3.3321485E-2],"categories":[],"categories_nodes":[],"categories_segments":[],"categories_sizes":[],"default_left":[0,0,0],"id":56,"left_children":[1,-1,-1],"loss_changes":[4.4793826E-2,0E0,0E0],"parents":[2147483647,0,0],"right_children":[2,-1,-1],"split_conditions":[4.9E0,2.622947E-2,-3.3321485E-2],"split_indices":[11,0,0],"split_type":[0,0,0],"sum_hessian":[2.6130183E0,1.5820363E0,1.0309821E0],"tree_param":{"num_deleted":"0","num_feature":"13","num_nodes":"3","size_leaf_vector":"1"}},{"base_weights":[-1.9489909E-3,2.6793918E-2,-2.9969001E-2],"categories":[],"categories_nodes":[],"categories_segments":[],"categories_sizes":[],"default_left":[0,0,0],"id":57,"left_children":[1,-1,-1],"loss_changes":[4.105133E-2,0E0,0E0],"parents":[2147483647,0,0],"right_children":[2,-1,-1],"split_conditions":[3.1E1,2.6793918E-2,-2.9969001E-2],"split_indices":[5,0,0],"split_type":[0,0,0],"sum_hessian":[2.5943162E0,1.3886278E0,1.2056884E0],"tree_param":{"num_deleted":"0","num_feature":"13","num_nodes":"3","size_leaf_vector":"1"}},{"base_weights":[-2.2491263E-3,-2.876723E-2,2.6405938E-2],"categories":[],"categories_nodes":[],"categories_segments":[],"categories_sizes":[],"default_left":[0,0,0],"id":58,"left_children":[1,-1,-1],"loss_changes":[3.8728267E-2,0E0,0E0],"parents":[2147483647,0,0],"right_children":[2,-1,-1],"split_conditions":[7.6E1,-2.876723E-2,2.6405938E-2],"split_indices":[0,0,0],"split_type":[0,0,0],"sum_hessian":[2.5831354E0,1.2373134E0,1.345822E0],"tree_param":{"num_deleted":"0","num_feature":"13","num_nodes":"3","size_leaf_vector":"1"}},{"base_weights":[-2.227017E-3,-2.783928E-2,2.8808955E-2],"categories":[],"categories_nodes":[],"categories_segments":[],"categories_sizes":[],"default_left":[0,0,0],"id":59,"left_children":[1,-1,-1],"loss_changes":[4.0758096E-2,0E0,0E0],"parents":[2147483647,0,0],"right_children":[2,-1,-1],"split_conditions":[4.63E0,-2.783928E-2,2.8808955E-2],"split_indices":[8,0,0],"split_type":[0,0,0],"sum_hessian":[2.5786166E0,1.3707014E0,1.2079152E0],"tree_param":{"num_deleted":"0","num_feature":"13","num_nodes":"3","size_leaf_vector":"1"}},{"base_weights":[-1.2778017E-3,2.6411217E-2,-2.796414E-2],"categories":[],"categories_nodes":[],"categories_segments":[],"categories_sizes":[],"default_left":[0,0,0],"id":60,"left_children":[1,-1,-1],"loss_changes":[3.759193E-2,0E0,0E0],"parents":[2147483647,0,0],"right_children":[2,-1,-1],"split_conditions":[1.3E1,2.6411217E-2,-2.796414E-2],"split_indices":[9,0,0],"split_type":[0,0,0],"sum_hessian":[2.5786908E0,1.3294982E0,1.2491927E0],"tree_param":{"num_deleted":"0","num_feature":"13","num_nodes":"3","size_leaf_vector":"1"}},{"base_weights":[-1.3290021E-3,3.0750494E-2,-2.5328862E-2],"categories":[],"categories_nodes":[],"categories_segments":[],"categories_sizes":[],"default_left":[0,0,0],"id":61,"left_children":[1,-1,-1],"loss_changes":[3.9383907E-2,0E0,0E0],"parents":[2147483647,0,0],"right_children":[2,-1,-1],"split_conditions":[7.9E3,3.0750494E-2,-2.5328862E-2],"split_indices":[10,0,0],"split_type":[0,0,0],"sum_hessian":[2.5614724E0,1.0349189E0,1.5265535E0],"tree_param":{"num_deleted":"0","num_feature":"13","num_nodes":"3","size_leaf_vector":"1"}},{"base_weights":[6.01797E-4,3.077341E-2,-2.4194123E-2],"categories":[],"categories_nodes":[],"categories_segments":[],"categories_sizes":[],"default_left":[0,0,0],"id":62,"left_children":[1,-1,-1],"loss_changes":[3.779406E-2,0E0,0E0],"parents":[2147483647,0,0],"right_children":[2,-1,-1],"split_conditions":[4.4E0,3.077341E-2,-2.4194123E-2],"split_indices":[8,0,0],"split_type":[0,0,0],"sum_hessian":[2.5630443E0,1.0201402E0,1.542904E0],"tree_param":{"num_deleted":"0","num_feature":"13","num_nodes":"3","size_leaf_vector":"1"}},{"base_weights":[2.2904638E-3,-2.5099555E-2,2.8160902E-2],"categories":[],"categories_nodes":[],"categories_segments":[],"categories_sizes":[],"default_left":[0,0,0],"id":63,"left_children":[1,-1,-1],"loss_changes":[3.5846464E-2,0E0,0E0],"parents":[2147483647,0,0],"right_children":[2,-1,-1],"split_conditions":[4.63E0,-2.5099555E-2,2.8160902E-2],"split_indices":[8,0,0],"split_type":[0,0,0],"sum_hessian":[2.5561144E0,1.363118E0,1.1929965E0],"tree_param":{"num_deleted":"0","num_feature":"13","num_nodes":"3","size_leaf_vector":"1"}},{"base_weights":[2.4741676E-3,2.9929478E-2,-2.2779606E-2],"categories":[],"categories_nodes":[],"categories_segments":[],"categories_sizes":[],"default_left":[0,0,0],"id":64,"left_children":[1,-1,-1],"loss_changes":[3.4702055E-2,0E0,0E0],"parents":[2147483647,0,0],"right_children":[2,-1,-1],"split_conditions":[4.4E0,2.9929478E-2,-2.2779606E-2],"split_indices":[8,0,0],"split_type":[0,0,0],"sum_hessian":[2.5561104E0,1.0191191E0,1.5369911E0],"tree_param":{"num_deleted":"0","num_feature":"13","num_nodes":"3","size_leaf_vector":"1"}},{"base_weights":[3.7658596E-3,2.8840544E-2,-2.2469983E-2],"categories":[],"categories_nodes":[],"categories_segments":[],"categories_sizes":[],"default_left":[0,0,0],"id":65,"left_children":[1,-1,-1],"loss_changes":[3.2992106E-2,0E0,0E0],"parents":[2147483647,0,0],"right_children":[2,-1,-1],"split_conditions":[2.5E1,2.8840544E-2,-2.2469983E-2],"split_indices":[5,0,0],"split_type":[0,0,0],"sum_hessian":[2.5494788E0,1.0704672E0,1.4790115E0],"tree_param":{"num_deleted":"0","num_feature":"13","num_nodes":"3","size_leaf_vector":"1"}},{"base_weights":[4.460359E-3,-2.3821529E-2,2.7740147E-2],"categories":[],"categories_nodes":[],"categories_segments":[],"categories_sizes":[],"default_left":[0,0,0],"id":66,"left_children":[1,-1,-1],"loss_changes":[3.347186E-2,0E0,0E0],"parents":[2147483647,0,0],"right_children":[2,-1,-1],"split_conditions":[4.63E0,-2.3821529E-2,2.7740147E-2],"split_indices":[8,0,0],"split_type":[0,0,0],"sum_hessian":[2.5402327E0,1.3507674E0,1.1894652E0],"tree_param":{"num_deleted":"0","num_feature":"13","num_nodes":"3","size_leaf_vector":"1"}},{"base_weights":[4.2391527E-3,2.9828548E-2,-2.1946691E-2],"categories":[],"categories_nodes":[],"categories_segments":[],"categories_sizes":[],"default_left":[0,0,0],"id":67,"left_children":[1,-1,-1],"loss_changes":[3.3355474E-2,0E0,0E0],"parents":[2147483647,0,0],"right_children":[2,-1,-1],"split_conditions":[4.4E0,2.9828548E-2,-2.1946691E-2],"split_indices":[8,0,0],"split_type":[0,0,0],"sum_hessian":[2.5402691E0,1.011506E0,1.528763E0],"tree_param":{"num_deleted":"0","num_feature":"13","num_nodes":"3","size_leaf_vector":"1"}},{"base_weights":[5.220574E-3,-2.2661444E-2,2.6800258E-2],"categories":[],"categories_nodes":[],"categories_segments":[],"categories_sizes":[],"default_left":[0,0,0],"id":68,"left_children":[1,-1,-1],"loss_changes":[3.0753197E-2,0E0,0E0],"parents":[2147483647,0,0],"right_children":[2,-1,-1],"split_conditions":[4.63E0,-2.2661444E-2,2.6800258E-2],"split_indices":[8,0,0],"split_type":[0,0,0],"sum_hessian":[2.5338414E0,1.3447134E0,1.189128E0],"tree_param":{"num_deleted":"0","num_feature":"13","num_nodes":"3","size_leaf_vector":"1"}},{"base_weights":[4.8341206E-3,2.6515381E-2,-2.5040856E-2],"categories":[],"categories_nodes":[],"categories_segments":[],"categories_sizes":[],"default_left":[0,0,0],"id":69,"left_children":[1,-1,-1],"loss_changes":[3.3450045E-2,0E0,0E0],"parents":[2147483647,0,0],"right_children":[2,-1,-1],"split_conditions":[1.3E1,2.6515381E-2,-2.5040856E-2],"split_indices":[9,0,0],"split_type":[0,0,0],"sum_hessian":[2.533924E0,1.3015327E0,1.2323914E0],"tree_param":{"num_deleted":"0","num_feature":"13","num_nodes":"3","size_leaf_vector":"1"}},{"base_weights":[3.8307467E-3,-2.4057636E-2,2.4312051E-2],"categories":[],"categories_nodes":[],"categories_segments":[],"categories_sizes":[],"default_left":[0,0,0],"id":70,"left_children":[1,-1,-1],"loss_changes":[2.932341E-2,0E0,0E0],"parents":[2147483647,0,0],"right_children":[2,-1,-1],"split_conditions":[7.6E1,-2.4057636E-2,2.4312051E-2],"split_indices":[0,0,0],"split_type":[0,0,0],"sum_hessian":[2.5183249E0,1.1874526E0,1.3308723E0],"tree_param":{"num_deleted":"0","num_feature":"13","num_nodes":"3","size_leaf_vector":"1"}},{"base_weights":[2.7655258E-3,2.7485194E-2,-2.0995693E-2],"categories":[],"categories_nodes":[],"categories_segments":[],"categories_sizes":[],"default_left":[0,0,0],"id":71,"left_children":[1,-1,-1],"loss_changes":[2.913086E-2,0E0,0E0],"parents":[2147483647,0,0],"right_children":[2,-1,-1],"split_conditions":[7.9E3,2.7485194E-2,-2.0995693E-2],"split_indices":[10,0,0],"split_type":[0,0,0],"sum_hessian":[2.514652E0,1.015314E0,1.499338E0],"tree_param":{"num_deleted":"0","num_feature":"13","num_nodes":"3","size_leaf_vector":"1"}},{"base_weights":[3.787693E-3,2.2574369E-2,-2.5837421E-2],"categories":[],"categories_nodes":[],"categories_segments":[],"categories_sizes":[],"default_left":[0,0,0],"id":72,"left_children":[1,-1,-1],"loss_changes":[2.9073259E-2,0E0,0E0],"parents":[2147483647,0,0],"right_children":[2,-1,-1],"split_conditions":[4.8E0,2.2574369E-2,-2.5837421E-2],"split_indices":[11,0,0],"split_type":[0,0,0],"sum_hessian":[2.5162637E0,1.4928672E0,1.0233965E0],"tree_param":{"num_deleted":"0","num_feature":"13","num_nodes":"3","size_leaf_vector":"1"}},{"base_weights":[1.7320631E-3,2.5916249E-2,-2.0106938E-2],"categories":[],"categories_nodes":[],"categories_segments":[],"categories_sizes":[],"default_left":[0,0,0],"id":73,"left_children":[1,-1,-1],"loss_changes":[2.617722E-2,0E0,0E0],"parents":[2147483647,0,0],"right_children":[2,-1,-1],"split_conditions":[4.4E0,2.5916249E-2,-2.0106938E-2],"split_indices":[8,0,0],"split_type":[0,0,0],"sum_hessian":[2.5026653E0,1.0067028E0,1.4959625E0],"tree_param":{"num_deleted":"0","num_feature":"13","num_nodes":"3","size_leaf_vector":"1"}},{"base_weights":[2.8875526E-3,-2.39814E-2,2.7225455E-2],"categories":[],"categories_nodes":[],"categories_segments":[],"categories_sizes":[],"default_left":[0,0,0],"id":74,"left_children":[1,-1,-1],"loss_changes":[3.2706693E-2,0E0,0E0],"parents":[2147483647,0,0],"right_children":[2,-1,-1],"split_conditions":[4.63E0,-2.39814E-2,2.7225455E-2],"split_indices":[8,0,0],"split_type":[0,0,0],"sum_hessian":[2.4974394E0,1.3320143E0,1.1654251E0],"tree_param":{"num_deleted":"0","num_feature":"13","num_nodes":"3","size_leaf_vector":"1"}},{"base_weights":[2.958894E-3,2.2443015E-2,-2.262307E-2],"categories":[],"categories_nodes":[],"categories_segments":[],"categories_sizes":[],"default_left":[0,0,0],"id":75,"left_children":[1,-1,-1],"loss_changes":[2.5334323E-2,0E0,0E0],"parents":[2147483647,0,0],"right_children":[2,-1,-1],"split_conditions":[3.1E1,2.2443015E-2,-2.262307E-2],"split_indices":[5,0,0],"split_type":[0,0,0],"sum_hessian":[2.4972806E0,1.3265104E0,1.1707702E0],"tree_param":{"num_deleted":"0","num_feature":"13","num_nodes":"3","size_leaf_vector":"1"}},{"base_weights":[2.0304488E-3,2.6394581E-2,-2.034929E-2],"categories":[],"categories_nodes":[],"categories_segments":[],"categories_sizes":[],"default_left":[0,0,0],"id":76,"left_children":[1,-1,-1],"loss_changes":[2.6926732E-2,0E0,0E0],"parents":[2147483647,0,0],"right_children":[2,-1,-1],"split_conditions":[4.4E0,2.6394581E-2,-2.034929E-2],"split_indices":[8,0,0],"split_type":[0,0,0],"sum_hessian":[2.4904091E0,1.0003215E0,1.4900876E0],"tree_param":{"num_deleted":"0","num_feature":"13","num_nodes":"3","size_leaf_vector":"1"}},{"base_weights":[3.1710374E-3,-2.2448383E-2,2.5621615E-2],"categories":[],"categories_nodes":[],"categories_segments":[],"categories_sizes":[],"default_left":[0,0,0],"id":77,"left_children":[1,-1,-1],"loss_changes":[2.8744234E-2,0E0,0E0],"parents":[2147483647,0,0],"right_children":[2,-1,-1],"split_conditions":[4.63E0,-2.2448383E-2,2.5621615E-2],"split_indices":[8,0,0],"split_type":[0,0,0],"sum_hessian":[2.4850087E0,1.3215696E0,1.1634393E0],"tree_param":{"num_deleted":"0","num_feature":"13","num_nodes":"3","size_leaf_vector":"1"}},{"base_weights":[3.1380751E-3,2.239147E-2,-2.148005E-2],"categories":[],"categories_nodes":[],"categories_segments":[],"categories_sizes":[],"default_left":[0,0,0],"id":78,"left_children":[1,-1,-1],"loss_changes":[2.39678E-2,0E0,0E0],"parents":[2147483647,0,0],"right_children":[2,-1,-1],"split_conditions":[1.3E1,2.239147E-2,-2.148005E-2],"split_indices":[9,0,0],"split_type":[0,0,0],"sum_hessian":[2.485106E0,1.27075E0,1.214356E0],"tree_param":{"num_deleted":"0","num_feature":"13","num_nodes":"3","size_leaf_vector":"1"}},{"base_weights":[2.4759925E-3,2.5612166E-2,-1.9673483E-2],"categories":[],"categories_nodes":[],"categories_segments":[],"categories_sizes":[],"default_left":[0,0,0],"id":79,"left_children":[1,-1,-1],"loss_changes":[2.5190776E-2,0E0,0E0],"parents":[2147483647,0,0],"right_children":[2,-1,-1],"split_conditions":[7.9E3,2.5612166E-2,-1.9673483E-2],"split_indices":[10,0,0],"split_type":[0,0,0],"sum_hessian":[2.472819E0,1.0000935E0,1.4727256E0],"tree_param":{"num_deleted":"0","num_feature":"13","num_nodes":"3","size_leaf_vector":"1"}},{"base_weights":[3.4474474E-3,2.6276927E-2,-1.9803626E-2],"categories":[],"categories_nodes":[],"categories_segments":[],"categories_sizes":[],"default_left":[0,0,0],"id":80,"left_children":[1,-1,-1],"loss_changes":[2.6088588E-2,0E0,0E0],"parents":[2147483647,0,0],"right_children":[2,-1,-1],"split_conditions":[4.4E0,2.6276927E-2,-1.9803626E-2],"split_indices":[8,0,0],"split_type":[0,0,0],"sum_hessian":[2.4744902E0,1.0009432E0,1.4735469E0],"tree_param":{"num_deleted":"0","num_feature":"13","num_nodes":"3","size_leaf_vector":"1"}},{"base_weights":[4.2957733E-3,-2.0826498E-2,2.4496065E-2],"categories":[],"categories_nodes":[],"categories_segments":[],"categories_sizes":[],"default_left":[0,0,0],"id":81,"left_children":[1,-1,-1],"loss_changes":[2.5451794E-2,0E0,0E0],"parents":[2147483647,0,0],"right_children":[2,-1,-1],"split_conditions":[4.63E0,-2.0826498E-2,2.4496065E-2],"split_indices":[8,0,0],"split_type":[0,0,0],"sum_hessian":[2.4691563E0,1.3168579E0,1.1522985E0],"tree_param":{"num_deleted":"0","num_feature":"13","num_nodes":"3","size_leaf_vector":"1"}},{"base_weights":[4.0719174E-3,2.547088E-2,-1.8914431E-2],"categories":[],"categories_nodes":[],"categories_segments":[],"categories_sizes":[],"default_left":[0,0,0],"id":82,"left_children":[1,-1,-1],"loss_changes":[2.4175173E-2,0E0,0E0],"parents":[2147483647,0,0],"right_children":[2,-1,-1],"split_conditions":[4.4E0,2.547088E-2,-1.8914431E-2],"split_indices":[8,0,0],"split_type":[0,0,0],"sum_hessian":[2.4692883E0,1.000032E0,1.4692564E0],"tree_param":{"num_deleted":"0","num_feature":"13","num_nodes":"3","size_leaf_vector":"1"}},{"base_weights":[4.7594626E-3,-1.9828789E-2,2.36029E-2],"categories":[],"categories_nodes":[],"categories_segments":[],"categories_sizes":[],"default_left":[0,0,0],"id":83,"left_children":[1,-1,-1],"loss_changes":[2.3343502E-2,0E0,0E0],"parents":[2147483647,0,0],"right_children":[2,-1,-1],"split_conditions":[4.63E0,-1.9828789E-2,2.36029E-2],"split_indices":[8,0,0],"split_type":[0,0,0],"sum_hessian":[2.464176E0,1.3121644E0,1.1520115E0],"tree_param":{"num_deleted":"0","num_feature":"13","num_nodes":"3","size_leaf_vector":"1"}},{"base_weights":[4.42754E-3,2.2068556E-2,-2.0447843E-2],"categories":[],"categories_nodes":[],"categories_segments":[],"categories_sizes":[],"default_left":[0,0,0],"id":84,"left_children":[1,-1,-1],"loss_changes":[2.2399016E-2,0E0,0E0],"parents":[2147483647,0,0],"right_children":[2,-1,-1],"split_conditions":[1.3E1,2.2068556E-2,-2.0447843E-2],"split_indices":[9,0,0],"split_type":[0,0,0],"sum_hessian":[2.464368E0,1.2553248E0,1.2090434E0],"tree_param":{"num_deleted":"0","num_feature":"13","num_nodes":"3","size_leaf_vector":"1"}},{"base_weights":[3.587819E-3,-2.0655572E-2,2.0651791E-2],"categories":[],"categories_nodes":[],"categories_segments":[],"categories_sizes":[],"default_left":[0,0,0],"id":85,"left_children":[1,-1,-1],"loss_changes":[2.1060739E-2,0E0,0E0],"parents":[2147483647,0,0],"right_children":[2,-1,-1],"split_conditions":[7.6E1,-2.0655572E-2,2.0651791E-2],"split_indices":[0,0,0],"split_type":[0,0,0],"sum_hessian":[2.45287E0,1.1362597E0,1.3166101E0],"tree_param":{"num_deleted":"0","num_feature":"13","num_nodes":"3","size_leaf_vector":"1"}},{"base_weights":[2.517792E-3,2.372103E-2,-1.8576667E-2],"categories":[],"categories_nodes":[],"categories_segments":[],"categories_sizes":[],"default_left":[0,0,0],"id":86,"left_children":[1,-1,-1],"loss_changes":[2.1915458E-2,0E0,0E0],"parents":[2147483647,0,0],"right_children":[2,-1,-1],"split_conditions":[2.5E1,2.372103E-2,-1.8576667E-2],"split_indices":[5,0,0],"split_type":[0,0,0],"sum_hessian":[2.450061E0,1.0160261E0,1.4340351E0],"tree_param":{"num_deleted":"0","num_feature":"13","num_nodes":"3","size_leaf_vector":"1"}},{"base_weights":[3.2705371E-3,-1.8722704E-2,2.1759856E-2],"categories":[],"categories_nodes":[],"categories_segments":[],"categories_sizes":[],"default_left":[0,0,0],"id":87,"left_children":[1,-1,-1],"loss_changes":[2.0194223E-2,0E0,0E0],"parents":[2147483647,0,0],"right_children":[2,-1,-1],"split_conditions":[4.63E0,-1.8722704E-2,2.1759856E-2],"split_indices":[8,0,0],"split_type":[0,0,0],"sum_hessian":[2.444079E0,1.3052722E0,1.1388067E0],"tree_param":{"num_deleted":"0","num_feature":"13","num_nodes":"3","size_leaf_vector":"1"}},{"base_weights":[3.1765914E-3,1.8064203E-2,-2.0374916E-2],"categories":[],"categories_nodes":[],"categories_segments":[],"categories_sizes":[],"default_left":[0,0,0],"id":88,"left_children":[1,-1,-1],"loss_changes":[1.8057477E-2,0E0,0E0],"parents":[2147483647,0,0],"right_children":[2,-1,-1],"split_conditions":[4.8E0,1.8064203E-2,-2.0374916E-2],"split_indices":[11,0,0],"split_type":[0,0,0],"sum_hessian":[2.4446604E0,1.441322E0,1.0033385E0],"tree_param":{"num_deleted":"0","num_feature":"13","num_nodes":"3","size_leaf_vector":"1"}},{"base_weights":[1.559055E-3,-1.9463634E-2,1.8560724E-2],"categories":[],"categories_nodes":[],"categories_segments":[],"categories_sizes":[],"default_left":[0,0,0],"id":89,"left_children":[1,-1,-1],"loss_changes":[1.7777758E-2,0E0,0E0],"parents":[2147483647,0,0],"right_children":[2,-1,-1],"split_conditions":[7.6E1,-1.9463634E-2,1.8560724E-2],"split_indices":[0,0,0],"split_type":[0,0,0],"sum_hessian":[2.4350445E0,1.1226134E0,1.3124311E0],"tree_param":{"num_deleted":"0","num_feature":"13","num_nodes":"3","size_leaf_vector":"1"}},{"base_weights":[8.33545E-4,-1.7789152E-2,1.9622102E-2],"categories":[],"categories_nodes":[],"categories_segments":[],"categories_sizes":[],"default_left":[0,0,0],"id":90,"left_children":[1,-1,-1],"loss_changes":[1.7208142E-2,0E0,0E0],"parents":[2147483647,0,0],"right_children":[2,-1,-1],"split_conditions":[4.63E0,-1.7789152E-2,1.9622102E-2],"split_indices":[8,0,0],"split_type":[0,0,0],"sum_hessian":[2.432968E0,1.3021332E0,1.1308347E0],"tree_param":{"num_deleted":"0","num_feature":"13","num_nodes":"3","size_leaf_vector":"1"}},{"base_weights":[1.1221291E-3,1.8121215E-2,-1.7874828E-2],"categories":[],"categories_nodes":[],"categories_segments":[],"categories_sizes":[],"default_left":[0,0,0],"id":91,"left_children":[1,-1,-1],"loss_changes":[1.595648E-2,0E0,0E0],"parents":[2147483647,0,0],"right_children":[2,-1,-1],"split_conditions":[1.3E1,1.8121215E-2,-1.7874828E-2],"split_indices":[9,0,0],"split_type":[0,0,0],"sum_hessian":[2.4338603E0,1.2338694E0,1.1999907E0],"tree_param":{"num_deleted":"0","num_feature":"13","num_nodes":"3","size_leaf_vector":"1"}},{"base_weights":[8.6448045E-4,1.941105E-2,-1.5690291E-2],"categories":[],"categories_nodes":[],"categories_segments":[],"categories_sizes":[],"default_left":[0,0,0],"id":92,"left_children":[1,-1,-1],"loss_changes":[1.500763E-2,0E0,0E0],"parents":[2147483647,0,0],"right_children":[2,-1,-1],"split_conditions":[2.5E1,1.941105E-2,-1.5690291E-2],"split_indices":[5,0,0],"split_type":[0,0,0],"sum_hessian":[2.4247122E0,1.0031487E0,1.4215636E0],"tree_param":{"num_deleted":"0","num_feature":"13","num_nodes":"3","size_leaf_vector":"1"}},{"base_weights":[1.7009405E-3,-1.7873008E-2,1.710059E-2],"categories":[],"categories_nodes":[],"categories_segments":[],"categories_sizes":[],"default_left":[0,0,0],"id":93,"left_children":[1,-1,-1],"loss_changes":[1.4986466E-2,0E0,0E0],"parents":[2147483647,0,0],"right_children":[2,-1,-1],"split_conditions":[7.6E1,-1.7873008E-2,1.710059E-2],"split_indices":[0,0,0],"split_type":[0,0,0],"sum_hessian":[2.4203162E0,1.111441E0,1.3088753E0],"tree_param":{"num_deleted":"0","num_feature":"13","num_nodes":"3","size_leaf_vector":"1"}},{"base_weights":[9.694471E-4,-1.6443659E-2,1.8285675E-2],"categories":[],"categories_nodes":[],"categories_segments":[],"categories_sizes":[],"default_left":[0,0,0],"id":94,"left_children":[1,-1,-1],"loss_changes":[1.4779936E-2,0E0,0E0],"parents":[2147483647,0,0],"right_children":[2,-1,-1],"split_conditions":[4.63E0,-1.6443659E-2,1.8285675E-2],"split_indices":[8,0,0],"split_type":[0,0,0],"sum_hessian":[2.4187737E0,1.2979412E0,1.1208326E0],"tree_param":{"num_deleted":"0","num_feature":"13","num_nodes":"3","size_leaf_vector":"1"}},{"base_weights":[1.2207588E-3,1.613899E-2,-1.5776962E-2],"categories":[],"categories_nodes":[],"categories_segments":[],"categories_sizes":[],"default_left":[0,0,0],"id":95,"left_children":[1,-1,-1],"loss_changes":[1.250444E-2,0E0,0E0],"parents":[2147483647,0,0],"right_children":[2,-1,-1],"split_conditions":[1.3E1,1.613899E-2,-1.5776962E-2],"split_indices":[9,0,0],"split_type":[0,0,0],"sum_hessian":[2.4198663E0,1.2241077E0,1.1957587E0],"tree_param":{"num_deleted":"0","num_feature":"13","num_nodes":"3","size_leaf_vector":"1"}},{"base_weights":[9.6708885E-4,1.8607363E-2,-1.5163368E-2],"categories":[],"categories_nodes":[],"categories_segments":[],"categories_sizes":[],"default_left":[0,0,0],"id":96,"left_children":[1,-1,-1],"loss_changes":[1.3866393E-2,0E0,0E0],"parents":[2147483647,0,0],"right_children":[2,-1,-1],"split_conditions":[8.3E3,1.8607363E-2,-1.5163368E-2],"split_indices":[10,0,0],"split_type":[0,0,0],"sum_hessian":[2.412022E0,1.0103513E0,1.4016708E0],"tree_param":{"num_deleted":"0","num_feature":"13","num_nodes":"3","size_leaf_vector":"1"}},{"base_weights":[1.6885996E-3,-1.5872516E-2,1.5236267E-2],"categories":[],"categories_nodes":[],"categories_segments":[],"categories_sizes":[],"default_left":[0,0,0],"id":97,"left_children":[1,-1,-1],"loss_changes":[1.1839354E-2,0E0,0E0],"parents":[2147483647,0,0],"right_children":[2,-1,-1],"split_conditions":[7.6E1,-1.5872516E-2,1.5236267E-2],"split_indices":[0,0,0],"split_type":[0,0,0],"sum_hessian":[2.414191E0,1.106358E0,1.3078331E0],"tree_param":{"num_deleted":"0","num_feature":"13","num_nodes":"3","size_leaf_vector":"1"}},{"base_weights":[9.995718E-4,1.7041419E-2,-1.4311532E-2],"categories":[],"categories_nodes":[],"categories_segments":[],"categories_sizes":[],"default_left":[0,0,0],"id":98,"left_children":[1,-1,-1],"loss_changes":[1.1986536E-2,0E0,0E0],"parents":[2147483647,0,0],"right_children":[2,-1,-1],"split_conditions":[2.6E1,1.7041419E-2,-1.4311532E-2],"split_indices":[5,0,0],"split_type":[0,0,0],"sum_hessian":[2.413082E0,1.0470623E0,1.3660195E0],"tree_param":{"num_deleted":"0","num_feature":"13","num_nodes":"3","size_leaf_vector":"1"}},{"base_weights":[1.5056514E-3,-1.3914135E-2,1.586486E-2],"categories":[],"categories_nodes":[],"categories_segments":[],"categories_sizes":[],"default_left":[0,0,0],"id":99,"left_children":[1,-1,-1],"loss_changes":[1.08412355E-2,0E0,0E0],"parents":[2147483647,0,0],"right_children":[2,-1,-1],"split_conditions":[4.63E0,-1.3914135E-2,1.586486E-2],"split_indices":[8,0,0],"split_type":[0,0,0],"sum_hessian":[2.4096088E0,1.2975161E0,1.1120927E0],"tree_param":{"num_deleted":"0","num_feature":"13","num_nodes":"3","size_leaf_vector":"1"}}]},"name":"gbtree"},"learner_model_param":{"base_score":"6.2245935E-1","boost_from_average":"1","num_class":"0","num_feature":"13","num_target":"1"},"objective":{"name":"binary:logistic","reg_loss_param":{"scale_pos_weight":"1"}}},"version":[2,0,3]}